-67.5216 85.2279 34.7826 61.3674 -66.6711 87.7486 28.8365 76.1122 -83.8367 90.6289 21.1901 -51.7188 -10.0915 -35.9836 -159.015 -41.2418 -4.18321 -36.0466 -168.936 -31.1246 -4.31834 -39.6837 4.15075 -14.9328 69.3002 -63.4494 -5.06372 -23.2161 81.0903 -56.2847 1.50608 -32.2338 84.975 61.1785 -90.2568 -14.7595 -123.885 69.0903 -85.7506 3.74095 -130.714 72.4284 -75.7519 -9.51927 -59.1602 92.5547 43.893 61.9403 -57.7751 97.1242 34.4155 79.4739 -77.4252 97.3572 27.7721 -48.4674 -24.9357 -47.8008 -166.354 -41.1735 -17.6277 -48.9442 -177.034 -31.4973 -17.039 -52.3638 9.56717 -17.4672 89.1894 -48.3247 -2.309 -26.1962 100.072 -45.0519 0.0981791 -28.4045 101.48 36.3366 -99.1314 4.803 -111.821 41.0813 -92.3438 23.6551 -116.857 38.8674 -84.0582 10.6958 -67.082 85.7765 73.8001 42.0176 -67.5366 92.2967 66.9496 64.9398 -84.0695 95.4462 57.5301 -38.0251 -7.60518 -49.4921 -158.573 -30.3426 0.138752 -52.1772 -164.876 -21.83 -0.0824934 -56.1145 19.478 -22.4226 89.5205 -50.3838 8.74685 -31.8485 99.5306 -44.1373 11.8714 -32.5892 103.841 -8.01381 27.4235 15.9213 -4.6205 -6.52275 30.2053 13.0724 10.5514 38.5319 23.3986 27.9301 40.6245 57.0957 9.60689 -40.4587 40.019 52.2445 34.351 -39.0297 60.8106 55.8566 35.2384 -27.3668 76.8919 16.4949 22.5279 -17.9238 66.3098 11.8325 22.551 -17.6258 69.7499 4.54068 65.3917 -26.6348 -53.658 19.3959 57.2152 -36.7647 -71.2918 10.1965 66.448 -31.6665 -66.6225 -7.56929 27.2675 30.2368 10.9501 -7.50824 31.1972 26.4185 26.6573 38.7846 24.4552 41.7567 46.2793 70.9068 1.12605 -40.709 48.4658 63.8866 26.5396 -36.4957 66.3902 69.5285 30.2243 -16.4446 60.0799 27.5259 30.37 -7.3483 46.7163 28.8505 24.24 -4.75598 51.5914 22.8285 67.2121 -26.2884 -79.8434 16.0119 59.8562 -35.5301 -96.4638 -1.93066 69.8907 -34.2335 -87.6557 9.94863 44.5628 11.1842 26.5257 7.11607 48.1235 9.25791 43.9563 51.9922 42.4251 24.2685 43.2244 68.1497 -9.59981 -31.8005 46.2593 59.7201 16.1004 -33.5981 64.4134 65.4726 18.6617 -7.29898 64.1555 9.89697 27.6116 0.30895 53.8982 11.2859 20.3329 1.77714 56.9106 8.44681 18.2265 55.1293 89.7955 11.3763 10.7784 66.4926 101.567 -14.1748 -5.75456 76.2373 95.1649 -11.5368 -89.286 -22.8778 -24.8409 -29.9805 -92.9918 -29.1715 -21.7339 -6.53405 -101.356 -20.6658 -47.0011 150.197 31.0497 -51.3827 -58.2655 175.778 23.4002 -39.9477 -45.9895 156.669 25.3374 1.47897 39.2979 -46.5107 -12.6083 6.56929 39.9938 -34.841 -4.45867 -3.5002 29.273 -40.8038 16.6954 50.7171 82.6556 18.2998 7.03124 64.6443 96.7415 -5.65926 -14.5998 72.5546 93.0089 2.0223 -80.3452 -19.6027 -29.1994 -14.2749 -87.4371 -27.6254 -26.8777 9.26877 -98.6831 -20.7342 -21.5842 153.504 18.973 -37.2144 -37.7225 176.15 4.27481 -28.4576 -30.5286 157.823 10.8644 -9.16761 25.6937 -66.1524 -40.4372 -3.49517 22.4684 -48.4382 -36.8568 -17.2367 11.7064 -53.88 43.5487 46.2624 85.4428 8.62031 34.0306 54.0776 99.0055 -9.96337 11.1965 64.8564 95.191 13.9589 -96.1473 -18.6788 -26.9397 -0.473095 -103.759 -25.8699 -23.4022 24.005 -116.827 -16.211 -24.2241 147.242 16.3888 -25.4669 -39.4868 171.003 1.45114 -14.4943 -33.9675 153.623 5.1632 -69.1108 86.4862 36.4421 61.3439 -68.1542 89.1461 30.0637 76.8581 -85.5966 92.6038 22.0597 -53.0493 -11.3947 -38.8231 -167.596 -41.8704 -4.70471 -38.5039 -178.076 -31.3776 -4.605 -42.144 7.05805 -19.8351 70.6779 -65.0142 -1.94114 -27.8872 83.0042 -58.0484 5.05572 -37.5846 87.1498 66.846 -95.8678 -19.4117 -129.859 75.3197 -90.6872 -0.0449612 -136.39 79.1224 -80.0988 -13.4295 -59.7517 94.0061 45.8706 61.9191 -58.3941 98.9502 35.8081 80.803 -78.3895 99.5702 28.9933 -49.7595 -26.6864 -51.7475 -175.058 -42.0719 -18.7256 -52.5352 -186.446 -31.925 -17.4799 -55.8079 12.7416 -22.6544 91.497 -48.7084 0.991511 -31.5783 102.874 -46.0271 3.51817 -33.8372 104.502 40.5601 -106.517 1.9422 -117.614 45.8349 -98.9676 21.5552 -121.89 44.0126 -90.3966 8.44353 -67.8843 87.0065 77.1506 41.6186 -68.2437 94.0285 69.8335 66.1501 -85.1217 97.8744 60.0178 -38.7416 -7.84653 -53.5542 -166.851 -30.5548 0.715542 -55.7804 -173.36 -21.8481 0.714803 -59.7758 23.3188 -27.9051 92.4973 -51.373 12.3833 -37.611 102.868 -45.4 15.719 -38.3734 107.429 -6.11867 29.9661 16.7293 -0.509815 -4.45531 32.7807 13.8534 15.3419 42.7261 25.1046 29.622 43.2196 57.1658 8.88945 -46.0112 43.1562 52.4181 35.2727 -44.205 65.3756 56.5542 35.9847 -30.5449 81.0498 17.1715 23.2305 -20.4031 69.8164 11.3546 23.883 -20.6393 73.2211 3.75937 69.075 -27.7968 -57.9006 20.2082 60.4735 -38.2138 -75.9183 11.0679 70.0111 -33.3465 -71.0679 -5.78594 29.7172 32.2835 15.5398 -5.97422 33.6223 28.4197 31.9567 42.6384 26.2291 44.6374 49.1064 71.2695 -0.372135 -46.3548 52.0602 64.5795 26.5261 -41.6985 70.9408 70.9747 30.39 -19.784 63.3126 27.9536 32.0124 -10.078 49.1369 28.1972 26.0847 -7.89522 54.1779 21.9686 71.7377 -28.3134 -85.2932 17.3055 63.7693 -37.9067 -102.227 -1.16243 74.0812 -36.6949 -92.9979 11.8353 47.7335 12.3229 30.9461 8.69965 51.6862 10.1949 49.22 55.9595 45.2892 26.294 45.3101 68.6911 -11.4398 -36.5551 49.2145 60.4417 15.7341 -38.2869 68.509 66.8014 18.2762 -10.3147 67.412 8.67858 29.3671 -2.45494 56.1926 9.22012 22.5084 -1.02432 59.2619 6.18495 20.0289 58.4144 98.1933 9.10385 12.3497 69.9803 110.197 -18.5156 -5.07221 80.2292 103.236 -11.687 -94.816 -26.7555 -23.8007 -30.92 -98.769 -33.7354 -20.5305 -6.16425 -107.354 -25.0437 -47.2782 154.856 34.5741 -50.868 -59.0586 182.501 25.7484 -39.1091 -45.269 162.985 27.1631 3.90983 41.0484 -49.6305 -12.9478 8.73101 41.8527 -37.9375 -4.32347 -1.84952 29.9288 -44.1322 18.7233 53.9267 91.1285 15.7688 8.65712 68.2449 105.379 -9.89109 -14.3019 76.5836 101.388 1.99595 -84.9525 -23.2652 -28.467 -15.1182 -92.421 -31.9427 -26.0159 9.80373 -104.356 -24.9765 -20.7552 157.777 22.2084 -35.6641 -37.827 182.116 5.73599 -26.6924 -29.1588 163.472 12.2807 -7.56705 26.0654 -70.216 -42.2261 -2.21176 22.8663 -52.0542 -38.2551 -16.7145 11.0914 -57.7097 46.6981 50.4219 94.2372 5.16063 36.5975 58.3377 107.782 -15.237 12.4518 69.626 103.706 14.3145 -101.679 -22.0854 -26.2842 -0.972417 -109.669 -30.0446 -22.5093 25.2807 -123.279 -20.0797 -24.3094 151.881 19.8467 -23.8777 -40.5228 177.644 3.09713 -12.2053 -33.9365 159.909 6.38322 -70.5233 87.3742 38.2138 61.3375 -69.6636 90.5783 31.3726 77.8367 -87.5378 94.5992 22.7591 -54.4649 -12.6278 -41.7368 -176.097 -42.5475 -5.36051 -40.7489 -187.247 -31.8011 -4.94796 -44.5086 10.317 -24.5785 72.1311 -66.6758 1.23096 -32.7316 85.0385 -59.8304 8.6227 -43.0854 89.265 72.5607 -101.369 -23.927 -135.844 81.554 -95.5437 -3.76436 -142.132 86.078 -84.7579 -17.3029 -60.2754 95.6374 47.9714 61.9614 -59.0708 100.843 37.3608 82.209 -79.5399 101.961 30.0038 -51.2182 -28.5444 -55.6485 -183.753 -42.7768 -19.6576 -56.0554 -195.662 -32.4385 -18.0673 -59.3794 16.128 -28.0849 93.7818 -49.3945 4.28817 -36.7543 105.895 -47.0387 6.91956 -39.4555 107.35 44.8631 -113.943 -0.771053 -123.162 50.5711 -105.62 19.5623 -126.966 49.2054 -96.6564 6.10596 -68.6052 88.0523 80.3786 41.2962 -69.0247 95.6713 72.5473 67.1504 -86.1764 100.129 62.414 -39.5698 -8.10957 -57.8762 -175.075 -30.8884 1.18173 -59.382 -181.887 -21.8984 1.48789 -63.6253 26.9428 -33.6603 95.3631 -52.4842 16.0081 -43.1828 106.221 -46.7226 19.564 -44.2291 111.055 -4.23521 32.5046 17.4309 3.53945 -2.69578 35.3723 14.7676 20.2154 46.8548 27.0378 31.3933 45.7583 57.0467 8.1662 -51.6805 46.3588 52.6866 36.1516 -49.4451 69.8294 57.2312 36.6644 -33.7148 85.3103 17.631 23.7158 -23.0831 73.4034 10.7064 24.9335 -23.5785 76.696 2.91498 72.9229 -29.0488 -62.2524 20.9452 63.6263 -39.7554 -80.3513 11.8796 73.2907 -34.9142 -75.4115 -4.08141 32.0873 34.3469 20.0312 -4.44248 36.0734 30.3598 37.1075 46.5533 27.9696 47.5023 51.7475 71.8676 -1.78395 -51.9549 55.4346 65.1754 26.6742 -46.7898 75.5285 72.2807 30.5066 -22.9168 66.4224 28.2431 33.8965 -12.8668 51.4691 27.608 28.1805 -10.7887 56.6163 21.0582 76.0918 -30.2331 -90.7808 18.5711 67.5915 -40.0941 -107.822 -0.366883 78.2212 -39.2283 -98.0517 13.8976 51.1105 13.2576 35.5637 10.2973 55.3081 11.2219 54.6468 59.8508 48.3369 28.4436 47.6373 69.2754 -13.0762 -41.1544 51.8177 60.9613 15.4024 -42.919 72.4764 67.7898 17.7291 -13.4698 70.4614 7.62347 31.4201 -5.14884 58.5512 6.8348 24.6637 -4.0753 61.8051 3.95681 22.0365 61.7287 106.682 6.6052 14.0415 73.6175 118.662 -22.7799 -4.51109 84.2163 111.3 -11.683 -100.345 -30.7015 -22.8783 -31.9542 -104.595 -38.3482 -19.3128 -5.6739 -113.409 -29.4438 -47.4742 159.413 38.1319 -50.3468 -59.8379 189.224 28.0807 -38.0691 -44.6344 169.431 28.9464 6.33796 42.6299 -52.8096 -13.365 11.0061 43.6579 -40.9631 -4.12419 -0.226697 30.3961 -47.4369 20.7308 57.2244 99.5482 13.2393 10.4741 72.0886 114.138 -14.2963 -13.8442 80.7143 109.707 1.92338 -89.5701 -26.885 -27.8873 -15.8889 -97.5952 -36.3668 -25.2857 10.4481 -110.093 -29.1728 -19.771 161.914 25.4142 -34.281 -37.688 188.279 7.30046 -24.707 -27.9223 169.252 13.569 -5.96638 26.7051 -74.3129 -44.0019 -0.680461 23.4593 -55.5745 -39.9199 -16.115 10.6044 -61.4275 49.8514 54.6126 103.025 1.55208 39.1474 62.7149 116.637 -20.3638 13.6632 74.5518 112.122 14.8475 -107.251 -25.3313 -25.6637 -1.25827 -115.459 -34.0528 -21.5984 26.4422 -129.878 -23.8087 -24.2895 156.592 23.0933 -22.2226 -41.2789 184.317 4.76056 -9.89242 -33.9883 166.135 7.6209 -72.0626 88.5179 40.0877 61.3343 -71.1055 91.8926 32.7209 78.5822 -89.3703 96.3909 23.6385 -55.7459 -13.7459 -44.637 -184.786 -43.1962 -5.87507 -43.1556 -196.385 -32.1851 -5.13107 -46.9026 13.3315 -29.4005 73.7341 -68.4455 4.41233 -37.6554 86.7863 -61.6399 12.0542 -48.5971 91.452 78.0927 -107.091 -28.4369 -141.829 87.7857 -100.458 -7.59507 -147.826 92.8501 -89.2185 -21.2263 -61.0224 97.0491 50.0962 62.2006 -59.597 102.622 38.8788 83.3765 -80.6673 104.139 31.3242 -52.5787 -30.2711 -59.7089 -192.43 -43.554 -20.7318 -59.4579 -205.121 -32.9295 -18.7016 -62.936 19.3957 -33.3785 96.1193 -49.7978 7.54714 -41.9473 108.742 -48.0979 10.4418 -44.9854 110.343 49.2116 -121.365 -3.50184 -128.845 55.1327 -112.274 17.4188 -132.007 54.3374 -103.09 4.02355 -69.3578 89.2568 83.4252 41.0594 -69.9174 97.5153 75.4837 68.4508 -87.3081 102.46 64.696 -40.1368 -8.27979 -61.9047 -183.164 -31.0546 1.50183 -63.1208 -190.604 -21.9702 2.20062 -67.4016 30.5317 -39.1527 98.2261 -53.6172 19.8677 -48.7861 109.679 -48.1831 23.4814 -50.0435 114.621 -2.21826 35.0784 18.3865 7.41621 -0.744332 38.1579 15.6848 25.0886 51.2342 28.9995 33.2151 48.3815 56.9554 7.56425 -57.3707 49.3982 52.7618 36.7683 -54.538 74.2934 57.9239 37.3812 -36.8373 89.4655 18.3041 24.3303 -25.5563 76.9118 10.234 26.0676 -26.5077 80.1456 1.9496 76.6843 -30.2433 -66.4893 21.7896 66.7975 -41.2991 -85.0485 12.5893 76.7383 -36.6714 -79.7451 -2.43413 34.286 36.3808 24.7012 -2.84414 38.4757 32.2758 42.3349 50.5659 29.7674 50.2286 54.5717 72.1811 -3.29899 -57.6409 58.8128 65.814 26.5938 -51.7327 80.0678 73.6675 30.6196 -26.1102 69.7111 28.58 35.6988 -15.6613 53.8181 26.7928 29.9507 -13.7694 59.1118 20.1227 80.6051 -32.2765 -96.2204 19.8034 71.5747 -42.3526 -113.37 0.354546 82.4202 -41.4774 -103.379 15.991 54.3315 14.3865 40.2027 11.8694 58.774 12.4119 60.0497 63.6316 51.2708 30.4357 49.8422 69.7382 -14.7603 -45.865 54.7216 61.6668 15.0267 -47.3516 76.6604 68.9485 17.2775 -16.3164 73.5626 6.45377 33.3398 -7.8179 61.0035 4.69789 26.804 -6.98304 64.2036 1.6807 23.7597 65.0776 115.225 4.3104 15.5386 77.4494 127.134 -27.0651 -3.80792 88.2197 119.453 -11.8486 -105.707 -34.7033 -21.8246 -32.8871 -110.151 -43.0695 -18.2717 -5.3904 -119.452 -33.9206 -47.8681 164.083 41.526 -49.8706 -60.4881 196.07 30.3912 -37.2243 -43.9765 175.821 30.8115 8.97708 44.371 -55.8286 -13.8213 13.0113 45.44 -44.0087 -3.94259 1.43166 30.9179 -50.6194 22.9777 60.4107 108.097 10.6641 12.0344 75.8133 122.846 -18.7023 -13.5472 84.6657 117.978 1.79757 -94.2028 -30.6355 -27.2018 -16.7893 -102.704 -40.5369 -24.7086 11.0817 -115.89 -33.4158 -18.9386 166.18 28.5822 -32.8871 -37.5798 194.212 8.85445 -22.8389 -26.5016 174.867 15.0185 -4.19967 27.2008 -78.246 -45.8552 0.596941 24.0057 -59.1544 -41.2561 -15.5515 9.92343 -65.0594 52.9323 58.6539 111.774 -1.92732 41.8075 67.2728 125.521 -25.7583 14.7736 79.5661 120.684 15.4714 -112.691 -28.5782 -24.9944 -1.61536 -121.46 -37.9707 -20.6021 27.6563 -136.46 -27.7224 -24.425 161.233 26.4887 -20.5457 -42.3877 190.812 6.49684 -7.62864 -34.118 172.38 8.95551 -73.5131 89.6591 41.8009 61.2701 -72.7332 93.4431 33.8591 79.4206 -91.1408 98.3926 24.2976 -57.1724 -15.129 -47.3438 -193.332 -43.6642 -6.37419 -45.6762 -205.547 -32.5014 -5.37436 -49.2009 16.4089 -34.3631 75.1303 -70.0876 7.52986 -42.4446 88.7087 -63.4539 15.5011 -54.0687 93.6181 83.8019 -112.655 -33.0703 -147.895 93.9696 -105.381 -11.3086 -153.632 99.763 -93.8292 -25.0952 -61.5649 98.5023 52.1837 62.2892 -60.3372 104.488 40.2889 84.7611 -81.7244 106.339 32.3544 -53.7955 -32.0753 -63.5176 -201.124 -44.4389 -21.7452 -63.0423 -214.334 -33.545 -19.2845 -66.5332 22.6794 -38.7254 98.4893 -50.4197 10.6676 -47.2847 111.539 -49.2291 13.7865 -50.4752 113.218 53.5587 -128.678 -6.29004 -134.653 59.884 -118.845 15.3049 -137.231 59.3875 -109.272 1.64258 -70.1901 90.5499 86.7452 40.74 -70.698 99.256 78.2857 69.4122 -88.2215 104.795 67.2669 -41.0148 -8.51317 -65.9495 -191.492 -31.3371 2.0178 -66.6727 -199.051 -21.8602 3.02515 -70.9977 34.117 -44.9065 101.113 -54.7335 23.4252 -54.626 113.183 -49.4501 27.483 -55.825 118.319 -0.463304 37.7526 19.1163 11.5763 1.15959 40.7348 16.4731 29.7258 55.4252 30.7115 34.938 50.9254 56.971 7.00131 -62.8859 52.3575 52.9533 37.77 -59.8019 78.657 58.5132 38.1992 -39.8322 93.829 18.8612 24.9572 -28.1999 80.4383 9.67229 27.1839 -29.5456 83.6042 1.20301 80.382 -31.4066 -70.8213 22.6084 70.0535 -42.8606 -89.4734 13.424 80.1363 -38.2578 -83.994 -0.752106 36.6589 38.4551 29.4139 -1.32273 41.02 34.3075 47.6332 54.683 31.4898 53.2219 57.3744 72.7249 -4.81264 -63.2404 62.3136 66.5341 26.6135 -56.8537 84.687 74.8962 30.5921 -29.2704 72.8277 29.0025 37.4358 -18.4355 56.3268 26.1307 32.0871 -16.7192 61.5022 19.1678 85.1974 -34.3349 -101.67 21.0445 75.4698 -44.406 -118.85 1.03839 86.6032 -43.9596 -108.448 17.926 57.6066 15.403 44.6003 13.5095 62.4593 13.3078 65.6027 67.5024 54.3408 32.553 51.9645 70.3342 -16.5514 -50.6607 57.44 62.3897 14.6254 -52.0035 80.7226 70.1586 16.7682 -19.487 76.5689 5.18418 35.0921 -10.5948 63.5188 2.60114 28.8582 -10.1242 66.5138 -0.546097 25.6897 68.3112 123.629 1.9315 17.1206 81.0494 135.732 -31.5831 -3.23168 92.2283 127.494 -11.7858 -111.247 -38.6797 -20.7902 -33.9545 -115.895 -47.6131 -17.1841 -4.95009 -125.681 -38.4357 -47.9898 168.594 45.2173 -49.5574 -61.3661 202.828 32.5862 -36.3545 -43.2687 182.181 32.8369 11.415 46.1198 -59.0768 -14.3646 15.2087 47.1673 -46.9299 -3.70035 2.91933 31.5921 -54.0178 24.9146 63.5529 116.447 8.14925 13.7557 79.5098 131.383 -23.0616 -13.1899 88.7312 126.112 1.77718 -98.8484 -34.1833 -26.6813 -17.745 -107.672 -44.9546 -23.8432 11.6258 -121.487 -37.6544 -17.9893 170.294 31.6484 -31.4618 -37.5442 200.423 10.5595 -20.9818 -25.1626 180.522 16.3526 -2.55329 27.7772 -82.3321 -47.8504 1.92459 24.6089 -62.6686 -42.8367 -14.8619 9.20679 -68.6604 56.0464 62.718 120.646 -5.46934 44.3473 71.6045 134.486 -30.8974 15.9764 84.5725 129 15.8475 -118.366 -32.0295 -24.389 -1.98043 -127.392 -41.9886 -19.7796 28.778 -142.955 -31.4353 -24.3331 165.843 29.6669 -18.9061 -43.2623 197.55 8.17804 -5.22618 -33.9946 178.619 10.0273 -74.9141 90.6151 43.6183 61.1937 -74.1728 94.6867 35.0764 80.3086 -92.9056 100.17 25.0807 -58.6709 -16.3732 -50.2342 -201.852 -44.3617 -7.06274 -48.0171 -214.634 -32.8153 -5.64146 -51.7541 19.4906 -39.1423 76.6218 -71.709 10.6158 -47.1068 90.6138 -65.3049 19.114 -59.4116 95.785 89.5452 -118.087 -37.7201 -153.766 100.327 -110.441 -14.9968 -159.373 106.593 -98.3138 -29.0076 -62.2618 99.9958 54.2314 62.3803 -60.8961 106.495 41.8028 86.0113 -82.8018 108.618 33.621 -55.3109 -34.0024 -67.5679 -209.692 -45.1594 -22.6681 -66.4163 -223.753 -33.9578 -19.986 -70.0331 26.093 -44.1754 100.788 -50.8711 13.9794 -52.558 114.348 -50.2521 17.2148 -55.8245 116.161 57.9311 -136.085 -9.22789 -140.19 64.5587 -125.352 13.3066 -142.201 64.4821 -115.676 -0.407415 -70.9436 91.751 89.8674 40.4079 -71.431 100.991 81.1364 70.5041 -89.3749 107.06 69.6195 -41.6639 -8.92194 -70.1906 -199.768 -31.5224 2.59852 -70.3109 -207.686 -22.0337 3.86018 -74.7467 37.8006 -50.4537 103.864 -55.7132 27.252 -60.244 116.414 -50.7959 31.2607 -61.767 121.939 1.49876 40.216 19.8382 15.4217 3.08455 43.3828 17.3185 34.6339 59.705 32.6279 36.5828 53.4785 56.8517 6.32521 -68.5535 55.5321 53.1174 38.5072 -64.871 83.1263 59.296 38.7656 -43.0018 98.0559 19.489 25.5308 -30.7139 83.9299 9.1682 28.355 -32.3705 87.2097 0.371624 84.1149 -32.5944 -75.0437 23.3386 73.2306 -44.5424 -94.0824 14.3847 83.524 -39.9903 -88.3414 0.960431 39.0094 40.4048 33.8559 0.325712 43.5668 36.3113 52.8623 58.6173 33.1189 55.9238 60.1994 73.1411 -6.2396 -68.7381 65.7351 67.2631 26.7172 -61.8687 89.2618 76.2001 30.6501 -32.5489 76.0318 29.2657 39.0942 -21.2414 58.6491 25.3431 33.9713 -19.7272 64.0493 18.2305 89.6396 -36.1761 -107.222 22.1843 79.2848 -46.784 -124.58 1.70792 91.0075 -46.4618 -113.723 19.8981 60.8319 16.498 49.3359 15.1273 66.0275 14.4608 70.9479 71.4194 57.4047 34.6353 54.2147 70.8752 -18.3896 -55.1492 60.2668 62.9849 14.3581 -56.635 84.8482 71.2599 16.3398 -22.5092 79.7372 4.08714 37.1481 -13.387 65.8526 0.217087 30.9606 -12.9498 68.9713 -2.7706 27.6822 71.734 132.071 -0.590918 18.7751 84.5818 144.259 -35.7823 -2.55874 96.066 135.554 -11.9289 -116.607 -42.7379 -19.9276 -35.0071 -121.708 -52.2922 -15.8671 -4.38458 -131.644 -42.8622 -48.457 173.127 48.6796 -48.9739 -62.0349 209.669 35.0208 -35.5231 -42.4634 188.737 34.5264 14.042 47.7024 -62.2357 -14.7585 17.3187 48.9202 -49.9123 -3.57691 4.59678 32.1285 -57.3457 27.1572 66.7613 124.958 5.57249 15.2725 83.3053 140.097 -27.5984 -12.8851 92.7442 134.375 1.85392 -103.552 -37.9772 -26.0234 -18.7063 -112.848 -49.3583 -23.0818 12.278 -127.292 -41.9644 -17.2774 174.572 34.7908 -29.9662 -37.5814 206.505 11.942 -19.162 -23.8334 186.316 17.699 -0.923225 28.3894 -86.4448 -49.5715 3.4122 25.066 -66.1322 -44.1987 -14.4155 8.6142 -72.3739 59.0534 66.8804 129.571 -8.98197 46.8629 76.0969 143.376 -36.2888 17.2251 89.404 137.407 16.391 -123.924 -35.401 -23.7404 -2.30542 -133.231 -45.9592 -18.7383 30.0958 -149.572 -35.4374 -24.5725 170.519 32.9696 -17.2117 -44.1706 204.055 10.0102 -2.88326 -34.1663 184.728 11.4392 -76.5054 91.7254 45.3578 61.2313 -75.8072 96.1976 36.435 81.1602 -94.8129 102.116 25.762 -60.047 -17.5353 -53.213 -210.472 -45.0876 -7.69817 -50.4305 -223.953 -33.205 -5.86166 -54.1202 22.6892 -43.8472 77.967 -73.3201 13.6361 -51.8712 92.4453 -66.9925 22.6098 -64.8012 97.9893 95.2042 -123.716 -42.3093 -159.713 106.372 -115.266 -18.7807 -165.113 113.26 -102.892 -32.8231 -62.9583 101.409 56.4572 62.5238 -61.5439 108.413 43.3184 87.4053 -83.8561 110.892 34.8149 -56.5122 -35.7654 -71.4609 -218.475 -46.0099 -23.7919 -69.981 -232.994 -34.5222 -20.548 -73.7477 29.374 -49.5037 103.155 -51.3584 17.2661 -57.8841 117.272 -51.2845 20.6172 -61.368 119.086 62.1668 -143.448 -12.0491 -145.819 69.3539 -131.982 11.3496 -147.439 69.5845 -121.931 -2.76607 -71.7027 92.8985 93.0333 40.135 -72.1042 102.805 83.8676 71.742 -90.3933 109.428 72.1486 -42.4308 -8.99704 -74.2243 -207.939 -31.6514 2.94768 -73.8274 -216.26 -22.0597 4.54208 -78.6425 41.6009 -55.9814 106.664 -56.8552 30.9042 -65.8368 119.91 -52.1973 35.3395 -67.6477 125.5 3.54553 42.799 20.7756 19.4545 5.04258 46.0343 18.1984 39.4112 63.8314 34.5795 38.4257 55.8536 56.7221 5.74009 -74.2482 58.5411 53.2395 39.2948 -70.1496 87.6623 59.8917 39.4565 -46.0556 102.201 20.0044 26.2654 -33.2349 87.4008 8.59591 29.5241 -35.4828 90.638 -0.44573 87.8558 -33.8718 -79.1763 24.0255 76.4943 -46.0852 -98.5923 15.1235 86.945 -41.5763 -92.7399 2.53656 41.2097 42.5321 38.5559 1.9345 45.9555 38.2391 58.1404 62.5872 34.9174 58.8387 63.0418 73.6818 -7.68797 -74.3825 69.2282 67.8463 26.6969 -67.1217 93.8115 77.4474 30.8691 -35.6846 79.2123 29.5554 41.0348 -23.9776 61.0542 24.6575 35.8947 -22.7135 66.4179 17.3169 94.1207 -38.1424 -112.558 23.3244 83.3443 -48.8647 -130.082 2.49452 95.1775 -48.8398 -118.861 21.947 64.2046 17.6691 53.8799 16.7436 69.6445 15.4566 76.3618 75.236 60.3388 36.7331 56.3822 71.4608 -19.9468 -59.8639 63.0255 63.5738 13.9333 -61.2598 88.8332 72.4989 15.6701 -25.4666 82.8823 2.94534 38.902 -16.1098 68.202 -1.84542 33.2029 -15.9837 71.237 -4.93634 29.5099 75.139 140.566 -3.01907 20.2872 88.3249 152.752 -40.1332 -1.92188 100.207 143.565 -12.0548 -122.117 -46.6859 -18.9875 -35.8504 -127.449 -56.9161 -14.7967 -3.91052 -137.821 -47.1297 -48.6857 177.815 52.3005 -48.5786 -62.8937 216.297 37.3453 -34.5924 -41.808 195.005 36.4228 16.532 49.5213 -65.3072 -15.132 19.4975 50.7336 -53.0253 -3.48558 6.36536 32.7669 -60.5911 29.2688 70.1299 133.525 3.11212 17.0698 87.1703 148.86 -31.8931 -12.5685 96.6911 142.652 1.78782 -108.093 -41.7179 -25.444 -19.6524 -117.979 -53.6205 -22.461 12.764 -132.924 -46.024 -16.3627 178.749 38.0308 -28.5656 -37.4889 212.456 13.5423 -17.368 -22.6379 191.944 18.9486 0.664909 28.9233 -90.6062 -51.4269 4.69502 25.5471 -69.6186 -45.7668 -13.7339 8.1697 -76.1202 62.2509 71.0079 138.212 -12.5982 49.4776 80.3575 152.109 -41.5425 18.459 94.2811 146.005 16.9401 -129.368 -38.6111 -23.1555 -2.65563 -139.191 -49.9716 -17.8677 31.362 -156.18 -39.13 -24.4806 175.169 36.4429 -15.4745 -44.9975 210.706 11.6851 -0.740599 -34.1073 190.947 12.6423 -77.8538 92.7404 47.1722 61.0899 -77.3239 97.5203 37.6602 82.053 -96.4453 104.099 26.5838 -61.5447 -18.7901 -56.0447 -218.979 -45.6294 -8.27725 -52.6229 -233.041 -33.6691 -6.21809 -56.5518 25.6163 -48.7664 79.4894 -74.9963 16.7155 -56.6868 94.4396 -68.9406 26.1505 -70.3076 100.291 100.894 -129.39 -46.8871 -165.821 112.639 -120.122 -22.4928 -170.901 120.168 -107.332 -36.7013 -63.5523 103.038 58.4923 62.6244 -62.2065 110.172 44.8252 88.5875 -84.8247 113.091 35.8676 -57.9506 -37.6452 -75.4439 -227.034 -46.6583 -24.825 -73.507 -242.478 -35.0234 -21.2899 -77.3468 32.6263 -54.8545 105.356 -51.8516 20.4865 -62.9981 120.122 -52.3446 24.0992 -66.8522 121.955 66.615 -150.642 -14.7321 -151.563 74.1126 -138.625 9.23357 -152.442 74.7564 -128.349 -4.96243 -72.4018 94.1197 96.3163 39.811 -73.0438 104.502 86.7406 72.7711 -91.4369 111.7 74.47 -43.1608 -9.44035 -78.353 -216.197 -32.0306 3.35468 -77.5229 -224.714 -22.0111 5.47514 -82.3387 45.2694 -61.6206 109.71 -58.0526 34.6385 -71.573 123.252 -53.4688 39.2314 -73.3398 129.049 5.28091 45.3712 21.4329 23.5858 7.04395 48.6574 19.0205 44.1838 68.1404 36.4095 40.0741 58.4503 56.7939 4.96246 -79.8399 61.5751 53.5049 40.187 -75.3947 92.0817 60.618 40.1901 -49.2861 106.431 20.6452 26.7514 -35.9 90.8501 8.12009 30.7806 -38.4407 94.1324 -1.27765 91.6267 -34.9969 -83.5552 24.8204 79.6417 -47.5321 -103.157 15.9327 90.4435 -43.0973 -97.0723 4.23666 43.6947 44.5755 43.0727 3.43441 48.4321 40.0918 63.4616 66.5994 36.69 61.6925 65.961 74.2952 -9.21571 -80.0469 72.588 68.4478 26.8271 -72.2168 98.5439 78.8267 30.8447 -38.915 82.3461 29.8727 42.6563 -26.8448 63.5139 24.0321 37.9497 -25.735 68.9445 16.4738 98.5329 -40.1 -118.103 24.6559 87.2293 -51.0854 -135.71 3.16125 99.4475 -51.3828 -124.134 24.0102 67.3818 18.7651 58.3553 18.4241 73.1075 16.4656 81.6661 79.1678 63.2568 38.7533 58.5577 71.9777 -21.7797 -64.6318 65.8626 64.406 13.5556 -65.9433 92.8331 73.6571 15.3654 -28.4928 86.0732 1.73899 40.8971 -18.7175 70.5636 -4.15826 35.3035 -19.0345 73.5998 -7.19481 31.2235 78.3334 149.103 -5.39744 21.8233 91.9645 161.4 -44.5072 -1.32661 104.169 151.757 -11.9432 -127.656 -50.6608 -17.8804 -36.8336 -133.198 -61.3778 -13.7064 -3.59138 -143.903 -51.6763 -48.8388 182.443 55.8197 -48.0221 -63.6451 223.144 39.7152 -33.6592 -41.0512 201.49 38.4197 18.9921 51.1672 -68.4646 -15.6071 21.7055 52.5251 -56.0288 -3.19282 7.95238 33.2695 -63.7711 31.1768 73.1726 141.872 0.611007 18.5903 90.8762 157.442 -36.4361 -12.1329 100.628 151.002 1.71691 -112.859 -45.2437 -24.8369 -20.5055 -122.941 -58.013 -21.7347 13.3739 -138.711 -50.3704 -15.4679 183.165 41.0773 -27.1038 -37.4021 218.556 15.0693 -15.5042 -21.3981 197.659 20.3683 2.27094 29.4681 -94.4967 -53.3018 6.19542 26.2544 -73.3004 -47.3685 -13.1226 7.51632 -79.9329 65.2847 75.28 147.145 -16.004 52.0195 84.8233 160.986 -46.6229 19.5849 99.2369 154.309 17.3352 -134.807 -41.9207 -22.5181 -2.85777 -145.148 -54.1091 -16.8463 32.4756 -162.856 -43.0183 -24.5795 179.829 39.6825 -13.7768 -45.9164 217.218 13.3807 1.5463 -34.123 197.264 13.9138 